<?xml version="1.0"?>
<!-- DTD for the XMLBIF 0.3 format -->
<!DOCTYPE BIF [
	<!ELEMENT BIF ( NETWORK )*>
	      <!ATTLIST BIF VERSION CDATA #REQUIRED>
	<!ELEMENT NETWORK ( NAME, ( PROPERTY | VARIABLE | DEFINITION )* )>
	<!ELEMENT NAME (#PCDATA)>
	<!ELEMENT VARIABLE ( NAME, ( OUTCOME |  PROPERTY )* ) >
	      <!ATTLIST VARIABLE TYPE (nature|decision|utility) "nature">
	<!ELEMENT OUTCOME (#PCDATA)>
	<!ELEMENT DEFINITION ( FOR | GIVEN | TABLE | PROPERTY )* >
	<!ELEMENT FOR (#PCDATA)>
	<!ELEMENT GIVEN (#PCDATA)>
	<!ELEMENT TABLE (#PCDATA)>
	<!ELEMENT PROPERTY (#PCDATA)>
]>


<BIF VERSION="0.3">
<NETWORK>
<NAME>New Network</NAME>
<VARIABLE TYPE="nature">
<NAME>category_sys_mod</NAME>
<OUTCOME>Value1</OUTCOME>
<OUTCOME>Value2</OUTCOME>
<OUTCOME>Value3</OUTCOME>
<OUTCOME>Value4</OUTCOME>
<OUTCOME>Value5</OUTCOME>
<PROPERTY>position = (287,107)</PROPERTY>
</VARIABLE>
<VARIABLE TYPE="nature">
<NAME>category_remove_replace</NAME>
<OUTCOME>R1</OUTCOME>
<OUTCOME>R2</OUTCOME>
<OUTCOME>R3</OUTCOME>
<OUTCOME>R4</OUTCOME>
<OUTCOME>R5</OUTCOME>
<OUTCOME>R6</OUTCOME>
<PROPERTY>position = (143,269)</PROPERTY>
</VARIABLE>
<VARIABLE TYPE="nature">
<NAME>category_end_state</NAME>
<OUTCOME>P1</OUTCOME>
<OUTCOME>P2</OUTCOME>
<OUTCOME>P3</OUTCOME>
<OUTCOME>P4</OUTCOME>
<OUTCOME>P5</OUTCOME>
<OUTCOME>P6</OUTCOME>
<PROPERTY>position = (418,273)</PROPERTY>
</VARIABLE>
<DEFINITION>
<FOR>category_sys_mod</FOR>
<GIVEN>category_remove_replace</GIVEN>
<GIVEN>category_end_state</GIVEN>
<TABLE>
0.77 0.22 0.010000000000000064 0.0 0.0 
0.58 0.4 0.01 0.010000000000000009 0.0 
0.57 0.37999999999999995 0.04 0.009999999999999926 0.0 
0.34 0.53 0.11 0.01999999999999999 0.0 
0.31 0.34 0.28 0.0699999999999999 0.0 
0.24 0.37 0.28 0.09 0.02000000000000001 
0.57 0.42 0.01 0.0 0.0 
0.35 0.63 0.02 0.0 0.0 
0.35 0.6 0.04 0.01 0.0 
0.17 0.69 0.11 0.02 0.010000000000000009 
0.16 0.47 0.3 0.07 0.0 
0.12 0.49 0.29 0.08 0.02000000000000013 
0.6 0.34 0.05 0.010000000000000009 0.0 
0.38 0.53 0.09 0.0 0.0 
0.33 0.44 0.21 0.01 0.010000000000000009 
0.13 0.41 0.41 0.02 0.030000000000000027 
0.08 0.17 0.69 0.02 0.040000000000000036 
0.06 0.17 0.65 0.02 0.09999999999999998 
0.4700000000000001 0.3100000000000001 0.17000000000000007 0.040000000000000015 0.00999999999999979 
0.26 0.42 0.25 0.06 0.010000000000000009 
0.17 0.27 0.46 0.09 0.009999999999999898 
0.05 0.17 0.6 0.15 0.029999999999999916 
0.02 0.05 0.71 0.17 0.05 
0.01 0.05 0.64 0.2 0.09999999999999987 
0.42 0.34 0.16 0.06 0.020000000000000018 
0.22 0.45 0.22 0.08 0.030000000000000027 
0.15 0.29 0.4 0.14 0.020000000000000018 
0.04 0.17 0.5 0.2 0.09000000000000014 
0.02 0.05 0.6 0.24 0.09000000000000008 
0.01 0.05 0.51 0.26 0.16999999999999993 
0.23 0.32 0.24 0.14 0.0699999999999999 
0.11 0.36 0.28 0.16 0.08999999999999991 
0.06 0.2 0.44 0.23 0.07000000000000012 
0.01 0.1 0.45 0.28 0.15999999999999998 
0.0 0.03 0.5 0.31 0.15999999999999992 
0.0 0.02 0.39 0.31 0.28 
</TABLE>
</DEFINITION>
<DEFINITION>
<FOR>category_remove_replace</FOR>
<TABLE>
0.16666666666666669 0.16666666666666669 0.16666666666666669 0.16666666666666669 0.16666666666666669 0.16666666666666669 
</TABLE>
</DEFINITION>
<DEFINITION>
<FOR>category_end_state</FOR>
<TABLE>
0.16666666666666669 0.16666666666666669 0.16666666666666669 0.16666666666666669 0.16666666666666669 0.16666666666666669 
</TABLE>
</DEFINITION>
</NETWORK>
</BIF>
