<?xml version="1.0"?>
<!-- DTD for the XMLBIF 0.3 format -->
<!DOCTYPE BIF [
	<!ELEMENT BIF ( NETWORK )*>
	      <!ATTLIST BIF VERSION CDATA #REQUIRED>
	<!ELEMENT NETWORK ( NAME, ( PROPERTY | VARIABLE | DEFINITION )* )>
	<!ELEMENT NAME (#PCDATA)>
	<!ELEMENT VARIABLE ( NAME, ( OUTCOME |  PROPERTY )* ) >
	      <!ATTLIST VARIABLE TYPE (nature|decision|utility) "nature">
	<!ELEMENT OUTCOME (#PCDATA)>
	<!ELEMENT DEFINITION ( FOR | GIVEN | TABLE | PROPERTY )* >
	<!ELEMENT FOR (#PCDATA)>
	<!ELEMENT GIVEN (#PCDATA)>
	<!ELEMENT TABLE (#PCDATA)>
	<!ELEMENT PROPERTY (#PCDATA)>
]>


<BIF VERSION="0.3">
<NETWORK>
<NAME>PvZ_level1_network</NAME>
<VARIABLE TYPE="nature">
<NAME>problem_solving</NAME>
<OUTCOME>high</OUTCOME>
<OUTCOME>medium</OUTCOME>
<OUTCOME>low</OUTCOME>
<PROPERTY>position = (600,100)</PROPERTY>
</VARIABLE>
<VARIABLE TYPE="nature">
<NAME>analyze_givens_and_constraints</NAME>
<OUTCOME>high</OUTCOME>
<OUTCOME>medium</OUTCOME>
<OUTCOME>low</OUTCOME>
<PROPERTY>position = (200,250)</PROPERTY>
</VARIABLE>
<VARIABLE TYPE="nature">
<NAME>analyze_goals</NAME>
<OUTCOME>high</OUTCOME>
<OUTCOME>medium</OUTCOME>
<OUTCOME>low</OUTCOME>
<PROPERTY>position = (400,250)</PROPERTY>
</VARIABLE>
<VARIABLE TYPE="nature">
<NAME>plan_solution_pathway</NAME>
<OUTCOME>high</OUTCOME>
<OUTCOME>medium</OUTCOME>
<OUTCOME>low</OUTCOME>
<PROPERTY>position = (600,250)</PROPERTY>
</VARIABLE>
<VARIABLE TYPE="nature">
<NAME>effective_tool_use</NAME>
<OUTCOME>high</OUTCOME>
<OUTCOME>medium</OUTCOME>
<OUTCOME>low</OUTCOME>
<PROPERTY>position = (800,250)</PROPERTY>
</VARIABLE>
<VARIABLE TYPE="nature">
<NAME>monitor_and_evaluate_progress</NAME>
<OUTCOME>high</OUTCOME>
<OUTCOME>medium</OUTCOME>
<OUTCOME>low</OUTCOME>
<PROPERTY>position = (1000,250)</PROPERTY>
</VARIABLE>
<VARIABLE TYPE="nature">
<NAME>sunflower_close_to_home</NAME>
<OUTCOME>0.0 to 0.25</OUTCOME>
<OUTCOME>0.26 to 0.50</OUTCOME>
<OUTCOME>0.51 to 0.75</OUTCOME>
<OUTCOME>0.76 to 1.0</OUTCOME>
<PROPERTY>position = (0,550)</PROPERTY>
</VARIABLE>
<VARIABLE TYPE="nature">
<NAME>collect_falling_sun</NAME>
<OUTCOME>0.0 to 0.25</OUTCOME>
<OUTCOME>0.26 to 0.50</OUTCOME>
<OUTCOME>0.51 to 0.75</OUTCOME>
<OUTCOME>0.76 to 1.0</OUTCOME>
<PROPERTY>position = (200,550)</PROPERTY>
</VARIABLE>
<VARIABLE TYPE="nature">
<NAME>plant_sunflowers_before_wave</NAME>
<OUTCOME>yes</OUTCOME>
<OUTCOME>no</OUTCOME>
<PROPERTY>position = (400,550)</PROPERTY>
</VARIABLE>
<VARIABLE TYPE="nature">
<NAME>plant_layout</NAME>
<OUTCOME>0.0 to 0.25</OUTCOME>
<OUTCOME>0.26 to 0.50</OUTCOME>
<OUTCOME>0.51 to 0.75</OUTCOME>
<OUTCOME>0.76 to 1.0</OUTCOME>
<PROPERTY>position = (600,400)</PROPERTY>
</VARIABLE>
<VARIABLE TYPE="nature">
<NAME>potato_mines_successful</NAME>
<OUTCOME>0.0 to 0.25</OUTCOME>
<OUTCOME>0.26 to 0.50</OUTCOME>
<OUTCOME>0.51 to 0.75</OUTCOME>
<OUTCOME>0.76 to 1.0</OUTCOME>
<PROPERTY>position = (800,400)</PROPERTY>
</VARIABLE>
<VARIABLE TYPE="nature">
<NAME>new_plant_layout</NAME>
<OUTCOME>0.0 to 0.25</OUTCOME>
<OUTCOME>0.26 to 0.50</OUTCOME>
<OUTCOME>0.51 to 0.75</OUTCOME>
<OUTCOME>0.76 to 1.0</OUTCOME>
<PROPERTY>position = (800,550)</PROPERTY>
</VARIABLE>
<VARIABLE TYPE="nature">
<NAME>new_plant_sequence</NAME>
<OUTCOME>0.0 to 0.25</OUTCOME>
<OUTCOME>0.26 to 0.50</OUTCOME>
<OUTCOME>0.51 to 0.75</OUTCOME>
<OUTCOME>0.76 to 1.0</OUTCOME>
<PROPERTY>position = (1000,550)</PROPERTY>
</VARIABLE>
<VARIABLE TYPE="nature">
<NAME>replaced_plants</NAME>
<OUTCOME>0.0 to 0.25</OUTCOME>
<OUTCOME>0.26 to 0.50</OUTCOME>
<OUTCOME>0.51 to 0.75</OUTCOME>
<OUTCOME>0.76 to 1.0</OUTCOME>
<PROPERTY>position = (1200,550)</PROPERTY>
</VARIABLE>
<DEFINITION>
<FOR>problem_solving</FOR>
<TABLE>
0.3333333333333333 0.3333333333333333 0.3333333333333333 
</TABLE>
</DEFINITION>
<DEFINITION>
<FOR>analyze_givens_and_constraints</FOR>
<GIVEN>problem_solving</GIVEN>
<TABLE>
0.75 0.16 0.09 
0.13 0.74 0.13 
0.09 0.16 0.75 
</TABLE>
</DEFINITION>
<DEFINITION>
<FOR>analyze_goals</FOR>
<GIVEN>problem_solving</GIVEN>
<TABLE>
0.8 0.13 0.07 
0.1 0.8 0.1 
0.07 0.13 0.8 
</TABLE>
</DEFINITION>
<DEFINITION>
<FOR>plan_solution_pathway</FOR>
<GIVEN>problem_solving</GIVEN>
<TABLE>
0.85 0.13 0.02 
0.1 0.8 0.1 
0.02 0.13 0.85 
</TABLE>
</DEFINITION>
<DEFINITION>
<FOR>effective_tool_use</FOR>
<GIVEN>problem_solving</GIVEN>
<TABLE>
0.75 0.15 0.1 
0.1 0.8 0.1 
0.02 0.13 0.85 
</TABLE>
</DEFINITION>
<DEFINITION>
<FOR>monitor_and_evaluate_progress</FOR>
<GIVEN>problem_solving</GIVEN>
<TABLE>
0.65 0.25 0.1 
0.2 0.6 0.2 
0.1 0.25 0.65 
</TABLE>
</DEFINITION>
<DEFINITION>
<FOR>sunflower_close_to_home</FOR>
<GIVEN>analyze_givens_and_constraints</GIVEN>
<TABLE>
0.12 0.15 0.28 0.45 
0.24 0.23 0.3 0.23 
0.35000000000000003 0.32000000000000006 0.24000000000000002 0.09000000000000001 
</TABLE>
</DEFINITION>
<DEFINITION>
<FOR>collect_falling_sun</FOR>
<GIVEN>analyze_givens_and_constraints</GIVEN>
<TABLE>
0.01 0.04 0.25 0.7 
0.1 0.2 0.35 0.35 
0.30000000000000004 0.35000000000000003 0.25000000000000006 0.10000000000000002 
</TABLE>
</DEFINITION>
<DEFINITION>
<FOR>plant_sunflowers_before_wave</FOR>
<GIVEN>analyze_givens_and_constraints</GIVEN>
<TABLE>
0.8 0.2 
0.5 0.5 
0.2 0.8 
</TABLE>
</DEFINITION>
<DEFINITION>
<FOR>plant_layout</FOR>
<GIVEN>plan_solution_pathway</GIVEN>
<TABLE>
0.12 0.15 0.28 0.45 
0.24 0.23 0.3 0.23 
0.35000000000000003 0.32000000000000006 0.24000000000000002 0.09000000000000001 
</TABLE>
</DEFINITION>
<DEFINITION>
<FOR>potato_mines_successful</FOR>
<GIVEN>effective_tool_use</GIVEN>
<TABLE>
0.1 0.2 0.3 0.4 
0.14 0.31 0.3 0.25 
0.22 0.3 0.28 0.2 
</TABLE>
</DEFINITION>
<DEFINITION>
<FOR>new_plant_layout</FOR>
<GIVEN>monitor_and_evaluate_progress</GIVEN>
<TABLE>
0.07 0.18 0.3 0.45 
0.1 0.4 0.4 0.1 
0.45 0.3 0.18 0.07 
</TABLE>
</DEFINITION>
<DEFINITION>
<FOR>new_plant_sequence</FOR>
<GIVEN>monitor_and_evaluate_progress</GIVEN>
<TABLE>
0.02 0.08 0.25 0.65 
0.1 0.4 0.4 0.1 
0.65 0.25 0.08 0.02 
</TABLE>
</DEFINITION>
<DEFINITION>
<FOR>replaced_plants</FOR>
<GIVEN>monitor_and_evaluate_progress</GIVEN>
<TABLE>
0.02 0.08 0.25 0.65 
0.1 0.4 0.4 0.1 
0.5508474576271187 0.21186440677966104 0.06779661016949153 0.16949152542372883 
</TABLE>
</DEFINITION>
</NETWORK>
</BIF>
